solver_type L2R_LR
nr_class 2
label 1 2
nr_feature 2940
bias -1
w
0.4213635431717399 
-3.396730558036127 
-2.543401977973529 
-3.2241803768367 
0.2551250657966434 
-1.074500641560061 
1.890524965447204 
0.5967541143994088 
0.6821300904550564 
1.034351093870343 
0.7165734344509841 
1.148869142377052 
0.5032233367433079 
-1.459853581946231 
0.2705688163692512 
-0.4171641213073424 
-0.001246375095301195 
-0.4157231514961108 
0.9346345387067944 
0.1870709462523016 
2.20113151586686 
3.264846947751277 
0.5429151189039191 
2.246987824141367 
-0.4363121617825397 
0.6131165832637574 
-0.007502117893997511 
-0.6216292464839873 
0.5761201389129194 
0.1531662849446877 
0.06212386617655641 
1.253029933713056 
-1.623371366133345 
-0.9470826303987041 
0.1585853301499701 
1.082951388055854 
-0.186735377809703 
1.633749073374869 
0.1241343169010409 
-1.127154029994931 
0.1820783060450009 
-1.210363484994853 
1.030672759858411 
-0.5313260833183412 
-1.381249356919388 
1.361585475511917 
2.36891612171742 
-0.4155163793049087 
0.7151580817979049 
-1.128464533723057 
-0.2407250096475948 
-1.648595981665872 
2.469165671900342 
-1.037918956624754 
-0.6571808984051402 
1.670231333792848 
-1.24728903771036 
-1.134621168095727 
0.2407430094889233 
1.610142272570428 
1.308416287557172 
-0.1294759714174446 
-2.207567738867382 
1.11520568669472 
-1.756678473477981 
0.3428434276221902 
1.912222829885931 
2.419332705089495 
0.4920998671174321 
-0.09121980055186287 
0.6019533257572031 
0.7006001584145569 
1.424159347464548 
1.148738849110637 
-0.09121980055186287 
-3.066493794535153 
-1.341332408604355 
3.287473889322134 
1.889538252184337 
-1.030107608457589 
-0.01210232712621649 
-0.2558016497172322 
0.09257532463417356 
1.043036708789131 
0.6454875982795151 
-2.684780081091264 
-0.1837989137577508 
0.3363079452697002 
1.043070696137989 
0.3877053591642883 
-1.151515804179756 
0.5140575406174101 
1.317945452132086 
-0.3046861990702611 
-0.5568526182172586 
-0.3046861990702611 
-0.06447958967103787 
-0.2743325069437777 
0.2788671172120846 
0.06901419993916097 
-0.6915514221737105 
0.2788671172120846 
0.9936183116829747 
-0.7625239312620827 
-1.918141899620098 
-0.7625239312620827 
-0.7625239312620827 
0.1992406173358144 
-0.2583744231906194 
0.1992406173358144 
-0.3197784078411448 
1.100887914270348 
0.1604619242033366 
-2.791114178746065 
0.5348202360958914 
-4.559041738996498 
0.3372531224831928 
1.20734365025852 
0.3145797797593804 
-0.03952683595975896 
-3.169674936976938 
-1.075983581479598 
2.473918014410134 
0.3834364388427996 
0.8223920954040038 
-0.4538095370097602 
-0.4197451319781426 
-0.8519852486563195 
1.041589212920247 
1.05552718529804 
1.05552718529804 
-0.02029057170030695 
-0.02029057170030695 
-0.4688090873352711 
0.6770013578668307 
0.1182543903536114 
-0.1253663953453341 
0.09494018692341766 
-0.04046499637308399 
0.4382806331160903 
0.8989968785548617 
-2.967444010899326 
-0.02384688144591347 
0.8828424566531383 
0.4682681101690916 
-0.3071606890305269 
-0.4883040029570005 
0.3961048589895663 
0.637406970608734 
-0.3159398744046466 
0.04795170064005978 
-3.327138740276121 
-0.2588395072342535 
0.06327777559699591 
-1.103621974420123 
2.279788448764351 
-3.521561660207219 
-1.276376790385432 
2.138660119084836 
0.4752942045052097 
0.1805922882462416 
0.4167156960297508 
-1.649618817384709 
-0.9533039394383538 
-0.5972298345424397 
-5.730819147191749 
-0.7194914817987758 
1.423924402337068 
-0.3191662983258228 
0.7692336007342724 
-0.9306770462599152 
-0.9059840891562192 
-5.218295499957387 
-0.7964347712210099 
-3.192293811583222 
0.2288833315744727 
0.2308106636449567 
0.3499972267199195 
-0.23303596124307 
0.3552393184624738 
0.08150946119471869 
0.7911929995055608 
0.4895738160193018 
-7.164031742938783 
-0.896920219490782 
-0.1310907343341322 
-0.1310907343341322 
2.495679864545949 
-0.8425421794240878 
-0.7053252066618259 
-0.4195318043582076 
-0.7087160563577061 
0.6030743114400009 
1.573886413599076 
0.5407670666265463 
0.6030743114400009 
0.6030743114400009 
0.6030743114400009 
0.6030743114400009 
0.6030743114400009 
0.6030743114400009 
0.6030743114400009 
0.6030743114400009 
0.6030743114400009 
0.6030743114400009 
-0.896920219490782 
-0.0427624025088023 
-1.100015089649612 
-2.834530645674435 
-0.1329362402568724 
-1.407312865707429 
0.6844236027360716 
1.685459056754296 
-6.697946243560258 
-1.780951131430318 
1.451317441298484 
2.665049438195726 
-5.926944298826541 
1.14149029107184 
2.396013234057198 
-2.275070910557236 
-1.875974751435191 
1.403405225752914 
0.04265722394502817 
-0.5573188253237947 
-0.4624110798597305 
3.176306481846919 
0.1839349951952706 
-0.8252746503526071 
-1.762428459663309 
0.7882916913636419 
-1.910887710381182 
1.395872545809404 
0.1620470411816183 
-4.527293076797903 
-1.491714322408823 
2.607891438999574 
-0.4693794468666144 
-0.6845394049763932 
-0.5007839479095646 
-1.342262289734707 
-0.8299835515454009 
-1.27854098387 
0.7010035423268978 
0.974636280534529 
0.3063196149145275 
-0.108895735612428 
-0.813030416253763 
0.6008228889359434 
-1.078633084274745 
-0.1414729907136519 
-0.245171466755734 
1.240521694021915 
0.4412407355764582 
-0.7803091475936881 
-0.05496617312802798 
-0.5174338403974864 
1.041876600870591 
-0.2117759237591442 
2.077080691615124 
-2.84790732597505 
0.6514624023453428 
0.1183153452037704 
-0.5002042725132267 
1.739637703054753 
-0.2620705992070821 
-1.028213563237664 
1.68059176431783 
-0.7785067431116394 
-1.837379858208894 
1.59991884148597 
-0.01589710751295539 
0.4238915106160964 
-0.8693562058762925 
-0.6323079457130429 
-0.06943280563830788 
0.134963221803422 
-0.5284262483417628 
1.80311751800134 
-2.298410441455973 
-1.263453841309752 
-0.8966164553760254 
-0.9020276835188252 
-0.2550568750937776 
-0.2550568750937776 
-1.358329434553963 
-0.2550568750937776 
-0.3458002515349499 
-0.2173005906473249 
-0.1674999830057738 
-1.257630070372927 
-1.440536341207033 
-0.6103900653135189 
0.604473835837937 
1.556617093344975 
0.05382100299605322 
-0.6637883995593021 
-0.9803994667974214 
-7.033534817482741 
-0.8311368223499457 
-1.476948887929228 
1.01384530273651 
1.025102652809905 
-1.164938785166847 
-0.2887899522610359 
0.3289834442366636 
-5.831225193106874 
-3.599491526514861 
0.4513002498711343 
-0.1171954571374221 
1.375322643385517 
2.057908718326117 
-1.33959682765459 
-2.023127287856324 
0.4940971191566861 
-2.901314071728057 
-2.687928908015243 
-2.208144806612146 
-1.203240493323004 
-1.305192848646886 
0.03779287849619595 
0.6490210281108343 
-1.492904282797827 
-1.933397203575089 
-1.326694202164186 
-0.8767266206023591 
-6.003807662033086 
-0.1467694968766329 
0.2443665870741161 
2.587848093358651 
-1.079775994330558 
0.2122209853251202 
1.477647873198948 
0.1504014059008813 
-0.6074696710352896 
-0.60894430540241 
-1.028271227756555 
-0.3010418149894233 
-2.232251699768352 
1.074085947649229 
-2.080424743356858 
1.318148236423066 
-1.282411965878589 
0.6252015981240107 
-0.5429381462091606 
1.135465801061738 
-0.08300615388565462 
-5.912167459592543 
-0.9762486967632835 
0.3873583036710292 
-2.694750768396869 
-0.3141768855066114 
0.7020432503327161 
0.4009659201079426 
1.531898543000366 
1.206182257105888 
0.1351255079272965 
0.2322482306219969 
4.207188289715936 
-0.2019282009418594 
-0.1668019192648484 
-0.1290456348183915 
0.4174784003575797 
-0.9447918306186915 
-0.3714118098607201 
-2.052788803093461 
0.5909190914379909 
-0.3714118098607201 
0.2658415975259229 
0.6681081049364731 
0.5454674902740483 
0.6638446791832846 
-1.003830268792014 
0.3201049260113796 
-1.109704963952829 
0.905761435799195 
-0.4052910093631975 
-0.9386481026933699 
0.1170064475497351 
1.736028204940985 
1.064225630829999 
-0.4211780565261625 
0.6800750776201223 
-0.3073101974265749 
-5.80359669750634 
0.3778093240408809 
0.5498467572365363 
1.064225630829999 
-0.3819726788607175 
1.064225630829999 
1.064225630829999 
-0.3159244100648039 
1.064225630829999 
0.9492699712265138 
1.197312303204568 
0.1259854807173692 
0.9492699712265138 
1.064225630829999 
-6.597339125153782 
1.064225630829999 
0.9492699712265138 
0.4140744689290584 
0.07580938309056565 
1.028008160333763 
-0.6747468513053953 
-0.0358990083174824 
-0.6074419683027946 
1.169713863994964 
1.37562549215522 
0.4466149720667499 
0.492787117169578 
0.9727301974390841 
0.7535455797363571 
-1.3336298885647 
0.5469703157933366 
-0.3094285454145426 
-0.6684203966016767 
-1.406499837386181 
0.620641185892432 
-1.004453835535434 
-1.748118337552842 
-0.9897881908376353 
-3.006865762796756 
4.333134553792338 
2.183801662724571 
1.109273706970187 
-2.235184433271989 
0.6261800789551281 
-1.077135515166347 
0.9927794043247421 
0.4910826213030225 
-0.3232533387771106 
-1.05885890699456 
-1.05885890699456 
-1.05885890699456 
0.6784139837489923 
0.127834408911401 
-1.779786920363481 
1.131466731365015 
1.179983045151078 
0.01361294164684636 
-0.3952908908972619 
0.8356088247948887 
-0.8079986613724131 
-0.6903158430829065 
-5.860014720229517 
-0.5186060441211107 
1.099069749995635 
-0.726741905733716 
-1.759143417490505 
-1.695293226227011 
2.043570822011152 
0.9829819901887549 
1.356413012680844 
0.6915133225652617 
0.5289130377557386 
-4.78866678882322 
3.737186695810892 
-0.771891574875385 
-0.771891574875385 
-0.6555790564954827 
0.4617579145795373 
1.081293510294864 
-1.10399062234575 
1.805214127740168 
-0.05847191877878441 
0.2369568049199226 
-1.669854660947434 
-0.6264239311730636 
-0.6911001052101833 
-1.524071702863978 
1.570677782881765 
-0.5515699812777497 
1.086140511275321 
-0.08606502353778517 
0.5061740946149873 
1.328656705096236 
-1.165112849075887 
0.3140501752227163 
0.532375594244914 
-1.77101629351344 
-1.518710374848556 
1.142198151688503 
-1.523681382354591 
-0.1074694916907376 
-1.659435518379321 
-0.7107868073196778 
0.7272090146702055 
-3.258039220380878 
0.9691705055719213 
1.096155151754021 
-0.9924376504112233 
-0.947022107604112 
-0.1417935293327483 
0.2679917334150665 
0.08821109034004233 
0.8448259706267283 
0.9488088696147603 
-0.0490243162212361 
0.1610936564635372 
0.1233373720170832 
1.048885400410963 
0.08821109034004233 
0.08821109034004233 
0.08821109034004233 
0.3115415351501611 
-4.808733832534159 
2.06886307119481 
-0.140311054345123 
1.144086885898587 
-0.8039344654971615 
-0.2947164896148918 
0.4472176963526546 
-0.2712978675789078 
-0.5036746058022775 
-2.702785040759202 
0.8796408473561977 
-1.812993735361103 
-3.342580398022858 
-0.09238653702564481 
-0.9108507653339693 
-1.163316586833611 
0.3682449944935803 
0.8654950212271667 
-0.5302403079193707 
-0.03092103107378785 
-0.9753111051068202 
0.5291407318698261 
0.5291407318698261 
0.5291407318698261 
-0.5174338403974863 
-0.5289108157306821 
1.209611659737258 
-7.160084907828911 
-0.7282639425523119 
0.4446246067095773 
-0.05966278513396086 
0.1475415225004977 
0.9635104135067564 
-0.03618577777484822 
-1.314150230355323 
0.9389674341069083 
0.5637121235650147 
-0.3452794211478164 
0.3650486992595133 
-0.3452794211478164 
-0.2584157680717881 
3.815306941594395 
0.8338284838243486 
0.2838146773163252 
-4.378662895328723 
-0.7100194667674898 
2.321140614515758 
-0.09413393124521734 
-0.8014639232156499 
-0.2552239504054777 
1.202156809620468 
-0.003506882730127066 
-8.27201373416759 
1.739455113787801 
1.092763192237849 
-0.5946817430171568 
-0.2502567759592437 
1.092763192237849 
-1.004127262659937 
1.092763192237849 
0.9177608012327203 
1.092763192237849 
1.092763192237849 
1.092763192237849 
-7.00662933800803 
0.6527111370322257 
0.01891925944872614 
0.01891925944872614 
0.01891925944872614 
0.01891925944872614 
0.01891925944872614 
0.3941724644561666 
0.01891925944872614 
-0.6285156109775829 
-0.6640614712410913 
-0.1289853971360222 
0.4488585511679235 
-0.2215515485739898 
0.8460230132494806 
1.136480412202969 
0.1656194946940508 
0.7565114808824786 
-0.9633194776517278 
-0.2982762922767817 
1.264170276204581 
0.7988798554795404 
-0.9971432530933784 
-0.4334533335827701 
0.2588252411883634 
-0.6753030690578987 
0.07793381231843483 
0.9265340581066746 
1.977949685770189 
-1.610801105315448 
-0.4068593349884136 
-0.1330832397307573 
0.1303420908928261 
0.1303420908928261 
0.1156337067768097 
0.6454861574734786 
-2.059348960823852 
-0.7481869140446473 
-0.8415614505479224 
-0.2511568670056574 
-0.2511568670056574 
-0.9805904772752638 
1.266828586678131 
-0.6244785670257428 
-2.467649823536789 
0.321988466864802 
0.02994799587263128 
0.01165269832510945 
-0.4976247880253022 
0.002558188027696057 
-1.291792134164301 
0.04611558154525632 
0.9999804683941745 
-0.9229083713807003 
0.4670736031461935 
0.5173983866267814 
-1.219664134142733 
2.838421862847826 
-0.6673148831245884 
-2.337850616956009 
1.295008675430308 
-0.01758721176363873 
-0.7328585980299081 
-0.7328585980299081 
0.07188922029023126 
2.125482865106078 
-0.520857123091691 
-0.3347958489141268 
-0.4756813198654922 
0.1874036739985086 
-2.108846420675192 
-0.07227960578489956 
0.4212292803413338 
-1.200617890492385 
-0.1022532362697504 
2.639061375837993 
0.662118207908627 
0.2382290940509402 
2.860088376231948 
4.808283107297167 
3.708976182115552 
-1.404054168454259 
-7.161214789134637 
-4.013048315148065 
-3.942305349841434 
0.8871584763529182 
-0.2034011089779892 
-0.2030773066359444 
0.4872805491890084 
-1.661530239972784 
-1.562835089326764 
-2.587023403973934 
-2.79174809347161 
0.4927400502253661 
-0.4594937023920469 
-1.026834320938875 
1.170689517435264 
0.5794801051911245 
0.3044341146136865 
0.3044341146136865 
-0.4142868017702144 
0.08624983174021228 
-0.5937050139168524 
-0.3496679797179864 
0.6746024465900407 
-0.4142868017702144 
0.3699631093093813 
0.7277406864925952 
-0.4142868017702144 
0.1223455364001564 
-0.4142868017702144 
-0.4142868017702144 
1.417670916169812 
-1.853824366742773 
1.1424981201379 
-0.2031349569326141 
-0.2031349569326141 
-0.2031349569326141 
-0.2031349569326141 
-5.991824183705448 
-0.4070689004714433 
-3.021654913666096 
1.562530239409322 
0.5480773230255726 
-3.124212307777696 
-2.830927907687444 
0.2512170340454486 
1.734337057100336 
-2.83572950903549 
-0.5174338403974862 
-0.448544202873209 
-4.125682543014736 
1.435711747944765 
0.490358403664921 
-0.6226291033549543 
-4.401952742511248 
0.5978639684601198 
-2.955903857520156 
1.03664610893833 
2.463406339371383 
-0.8433300785418474 
-0.1583676652001772 
-1.91756058449208 
-1.402714258177539 
1.910255638281037 
1.317684095717737 
2.273711921160664 
-3.78903615043353 
2.273711921160664 
1.265138877284575 
-1.865596445131876 
-3.550452286830835 
0.3420673461206074 
-0.6684203966016767 
-1.536777688323878 
0.08850070128450974 
0.3037535044989588 
-0.0206738918373794 
-0.251507508797346 
1.925502318005164 
0.6886254432861244 
0.3349432618002032 
1.197035895005417 
0.04904011022813781 
-0.7600737084244919 
-6.311016082901879 
1.761497189573328 
-3.24978643435969 
1.929801740391934 
-1.911340524241988 
-1.226206864083361 
1.756611001644889 
0.1093936173826209 
0.1093936173826209 
0.1093936173826209 
0.1093936173826209 
0.1093936173826209 
0.1093936173826209 
0.1093936173826209 
0.2682572952784225 
0.1093936173826209 
-7.150076491712898 
-0.2384092557102151 
-0.138556060327108 
-0.3764217608575892 
-0.4531312333715132 
-1.720243342163622 
-0.3764217608575892 
2.088535227154317 
-1.401686404411934 
0.05033737278631593 
2.848504582454493 
-7.146575131929596 
-2.650340668023733 
-1.096316024510476 
-1.019881356477969 
0.7379714654622031 
-1.280300656477726 
-0.9621819952658319 
-0.9621819952658319 
-0.9621819952658319 
-1.019881356477969 
-0.9560910188533636 
-1.019881356477969 
-1.019881356477969 
-4.112617803644959 
0.5555578950700405 
-0.6022535600523638 
1.112020965967473 
-1.208978471066016 
0.6114153067237227 
-5.425833646239584 
-0.9988021339883553 
-5.114551250729575 
0.4820267281849093 
1.788985285538492 
0.38349846008096 
-5.616070355675055 
3.176481089058872 
1.23406126244365 
1.471668762845608 
1.471668762845608 
1.299965405783157 
2.596589214413455 
-0.8792538945710955 
0.01770573801526495 
0.6521907501485118 
-0.1100328333118757 
0.3700566146744512 
0.3182643552748719 
0.4821493584762474 
-1.131575204057157 
0.01118290427045632 
0.01118290427045632 
-0.9893066875731398 
-0.1173791368650513 
1.090952552876253 
-0.998194089292583 
0.0624015062099725 
-0.1173791368650513 
-0.1173791368650513 
-0.1173791368650513 
-0.1173791368650513 
0.0624015062099725 
-0.1173791368650513 
-0.4624024025993871 
-0.1173791368650513 
-0.1173791368650513 
-0.1173791368650513 
-0.1173791368650513 
-0.3598278903462454 
-0.1173791368650513 
-0.07962285241859793 
-0.1173791368650513 
-0.1173791368650513 
-0.1173791368650513 
-0.2460138177094488 
-0.1173791368650513 
0.0624015062099725 
-0.1173791368650513 
-0.1173791368650513 
-0.4624677688399276 
-0.1173791368650513 
-0.1173791368650513 
-0.1173791368650513 
-0.1299137796539455 
0.0624015062099725 
-0.07962285241859793 
-0.6105220834916132 
-0.1173791368650513 
-0.1173791368650513 
-0.1173791368650513 
-0.6650815640634059 
0.292814173141085 
0.1548016679937095 
0.3991097187583423 
-0.9225448237598045 
0.7638333523069814 
0.1548016679937095 
-1.422546113542826 
1.615016292862777 
-1.213012007703809 
0.6980062038493359 
0.4117956928951826 
-0.7221667045437126 
0.02764169812090158 
-0.1286346808443976 
-0.1286346808443976 
0.2066615103940028 
-0.1286346808443976 
-0.1286346808443976 
0.113377560555759 
-0.1286346808443976 
-0.1286346808443976 
0.4974030871137324 
-0.1286346808443976 
-0.4354533741247726 
-0.1083431653093644 
0.2391422638219627 
0.2391422638219627 
0.5182516182154902 
0.02764169812090158 
-0.1286346808443976 
-0.6230967533147199 
0.2391422638219627 
1.118198661420352 
-0.17183935441149 
-0.9943070593478366 
1.514556919563491 
0.5640887260878333 
-1.353372573969812 
0.7253707396291244 
0.573904863956062 
1.243227992147823 
-0.4975657123190832 
0.8506031238871359 
-0.5174338403974862 
-0.5535225921600664 
1.612777584819976 
0.6723882812246235 
-0.3341880430690562 
-3.430182055479055 
3.36333361275767 
-0.06056406041719408 
-0.07897944208072154 
-2.405629629198056 
0.03404779807979273 
-1.044453778546222 
-0.0423443578573659 
-1.017502093291617 
4.384991244255703 
-0.9128977000556426 
-0.5250956448535084 
0.2210439297717601 
0.2526632091985179 
-0.9987851935517784 
1.883650633425324 
0.07288256612349606 
-0.3013846598535102 
-0.4968909055970519 
0.00350700225028227 
-1.171467744461944 
0.07288256612349606 
-1.424346282400995 
0.03512628167704089 
0.03512628167704089 
-0.888356110759187 
0.03512628167704089 
1.28195962394179 
1.659109261379738 
0.03512628167704089 
-1.062938656873371 
-0.1231394529297958 
0.03512628167704089 
0.07288256612349606 
0.00464693129387421 
-0.3706515014999164 
0.07288256612349606 
0.07288256612349606 
0.07288256612349606 
0.07288256612349606 
-0.3785876366846503 
0.07288256612349606 
0.03512628167704089 
0.8657298585033399 
0.07288256612349606 
0.03512628167704089 
0.03512628167704089 
0.03512628167704089 
0.07288256612349606 
2.314126198748207 
-0.8499090697091554 
0.07288256612349606 
0.07288256612349606 
0.07288256612349606 
-0.4383032697973353 
-0.4383032697973353 
0.03512628167704089 
0.2149069247520619 
-1.288869189802728 
-0.5042034472360505 
0.03512628167704089 
0.9328641591105403 
-0.9641512594594559 
-0.1569681218152048 
0.07288256612349606 
0.03512628167704089 
0.07288256612349606 
0.03512628167704089 
0.03512628167704089 
0.5410966147626111 
0.07288256612349606 
0.03512628167704089 
0.03512628167704089 
0.03512628167704089 
2.536982851154459 
0.07288256612349606 
0.07288256612349606 
0.07288256612349606 
0.03512628167704089 
0.03512628167704089 
-0.2429717717250587 
0.03512628167704089 
0.03512628167704089 
0.07288256612349606 
0.07288256612349606 
0.03512628167704089 
-0.9680502819352516 
1.009718570216696 
0.03512628167704089 
0.07288256612349606 
-0.08385398545992431 
0.07288256612349606 
0.03512628167704089 
3.518755019021556 
0.5868197451695766 
1.639909361736109 
2.409691898871539 
1.903226331785747 
1.450046819743013 
1.450046819743013 
0.4520254405321453 
1.832480622835618 
-1.133153100726901 
0.6066851152379181 
0.2979942909277885 
3.4224896706031 
-0.3690196550315199 
-0.1510460952834274 
0.6620200636997514 
-0.8367243108178437 
0.6620200636997514 
-0.9002260667243961 
-1.48954319931731 
-0.08009243754819714 
-0.5604479638302665 
-0.7870604960672115 
-0.7870604960672115 
-1.921184413996649 
0.07965290438351731 
0.5450554813668348 
0.5450554813668348 
-1.782180439757332 
0.1401201468871484 
-7.135469803195756 
-2.586611297566044 
-0.7568527111382855 
1.139628074116536 
1.139628074116536 
2.669096792947025 
-1.918134818051 
0.04804081308966218 
-1.044791052759698 
0.7385354197057807 
0.9976488061199845 
2.033010521403943 
-0.08291311603049262 
0.8367065910256191 
-6.672222886737903 
-1.534095563740828 
0.2170184384872442 
-0.3803695713387865 
3.349956049245968 
-0.5999228413343135 
-0.2636474890022061 
-0.07046617845137057 
-2.080953665294719 
-1.230030117664945 
0.1826376112912329 
-5.009929390401628 
-0.7813397972635074 
-2.719669235810898 
-0.5174338403974862 
0.1766163937858307 
-0.3184070905715299 
2.405681386181414 
0.3622687966355411 
1.507691859121437 
-0.9004096801076352 
0.5473782618953927 
0.3807867204284413 
-7.147984351648955 
-0.0892973107496548 
0.212065658401269 
-1.150814879239108 
0.212065658401269 
0.212065658401269 
1.530711929772041 
0.9251192957421616 
2.34698127475445 
-0.9705715780603061 
0.006202462840236001 
-0.6523935419920779 
-0.8173886801749807 
-0.07354906238283389 
-0.9303881523274841 
-2.687964552917066 
-0.7836122670765371 
-3.46404111902981 
-7.128037784136035 
0.7910081427392537 
-7.89866981759279 
-0.7378190371604235 
1.733143712353747 
0.9198142178220858 
1.146101915975395 
-0.6197786961628998 
-1.939750814394918 
-0.1284996608876242 
0.05385830103223493 
-1.709307793947942 
0.2048085240234732 
0.2048085240234732 
-1.47197737960189 
0.1943342477324897 
0.2048085240234732 
0.2048085240234732 
-1.380080755219199 
1.995956761327976 
3.29008770474921 
-0.5378308629399647 
-0.7799563105136165 
-0.9862254567436981 
1.417401455804228 
-0.112896081090729 
-1.171786469703247 
0.2747190444676768 
1.387610964816983 
-0.006090976412468267 
-0.7140942140339639 
0.1459933698938937 
-2.019446296475767 
-4.985799084926748 
0.3092691667582881 
1.09018845489241 
3.661047705942531 
1.563503111385782 
1.454959176272997 
0.5861356544664134 
-0.008821433210062429 
0.1623311238892032 
0.1623311238892032 
0.1623311238892032 
0.1623311238892032 
0.1623311238892032 
0.3421117669642265 
0.1623311238892032 
0.1623311238892032 
0.1623311238892032 
-0.8008650578197581 
0.1623311238892032 
-1.178342738789652 
-6.278077092611138 
-1.058304225860293 
-0.5174338403974862 
1.288736402085367 
0.6873534704706635 
-2.806921711033856 
-0.9004096801076356 
0.9262042074616688 
0.4541450087775129 
-0.9247558556948702 
-2.000908887305165 
-0.5587567898756062 
-0.5587567898756062 
-0.1322349277919547 
-0.2070849324291213 
-0.8867206029143384 
-4.963993341199307 
-1.430493929538378 
0.6026129558631036 
-1.206355457861566 
-1.359711002709956 
0.08123539759319923 
-2.522593676499453 
-0.1562998233685616 
-0.792285891665466 
3.030346796771787 
-0.5715798239601458 
-6.952478854865684 
-0.03264204275838641 
-1.770536493045202 
0.07587401149459892 
-0.4132210650911479 
-0.4132210650911479 
-0.4132210650911479 
-0.4132210650911479 
-0.1750073700401689 
-0.1750073700401689 
1.916805298363789 
0.8924715679312909 
0.6727794639969094 
0.3050025193305502 
0.4864624819415686 
-2.133161770854361 
-0.5153520258465725 
0.3050025193305502 
3.535414685882055 
0.3050025193305502 
0.6102570321305801 
0.3840329402603967 
-0.6194855081631195 
1.483957453404048 
0.4693341415399877 
-0.07123446662758534 
-0.4737161426380818 
-0.1543477571581185 
0.2616253722638159 
-0.1543477571581185 
-0.5089499679112726 
-0.7397112886895629 
0.1749028355836909 
0.4988207670149937 
-4.739092593238795 
-0.5174338403974862 
-0.8312118800796702 
0.09839773073151563 
1.932870353302769 
1.385638708351509 
0.02493314066820233 
-0.2178660714346146 
-1.812260489350681 
0.4418964152500459 
1.265422870290637 
0.8352708932652504 
0.02493314066820271 
0.8485660866100907 
0.02493314066820269 
0.02493314066820257 
0.7975146088187992 
0.659502103671421 
0.6324731148772805 
0.2799712568706228 
0.659502103671421 
0.7975146088187992 
-1.199747434664697 
-5.17993747855925 
1.11435674627031 
1.606939633922241 
-0.6877929541334977 
-0.6033771240069956 
1.780723296552275 
1.960879067356727 
-0.4097817597735904 
-1.26002870509015 
-0.07051681987803729 
-1.739811918916322 
-0.7513891247966377 
-0.1951090536206508 
0.9696564585675048 
-0.1951090536206508 
-0.886008812536921 
1.947562173603684 
0.3389010378536212 
0.3389010378536212 
3.396758031647544 
-1.568081472241802 
-1.371520887489267 
-0.04066122313679525 
-1.057192396379368 
0.2620054962215567 
0.6334131557679821 
0.6131408664694575 
0.6875727602715945 
-1.543399899861681 
-2.346492836736209 
1.197976695362977 
-1.059546341918062 
0.08452882313071095 
0.131614569054089 
0.9201094207804752 
1.230267708944326 
0.2352455868604783 
-7.148979332161956 
-0.01197449329367715 
-0.3803695713387863 
-0.2102650485024442 
-0.09343015683925272 
-1.184176001823986 
-2.108846420675192 
1.386750222623851 
1.649596052122395 
0.2798274260957303 
-1.458637326127852 
0.4995013229680777 
-1.046905275140958 
1.086703802826362 
-0.0574797651031318 
-0.0574797651031318 
-0.0574797651031318 
-0.0574797651031318 
-0.0574797651031318 
-0.0574797651031318 
0.2566827888386628 
-0.0574797651031318 
-0.0574797651031318 
0.74364467170461 
-0.3128156018093144 
-0.3128156018093144 
-1.065599791657952 
-0.778562326686007 
2.329773611909998 
-0.2815681435152896 
0.3305612045752242 
1.199060652238881 
-0.3026228411384045 
0.3305612045752242 
0.3305612045752242 
0.3305612045752242 
0.3305612045752242 
1.255629351099761 
0.9716838325998283 
2.687323089553558 
-3.113059307740311 
0.1882041631330765 
0.1882041631330765 
0.1882041631330765 
0.1882041631330765 
0.1882041631330765 
0.1882041631330765 
0.1882041631330765 
0.1882041631330765 
0.1882041631330765 
0.1882041631330765 
0.1882041631330765 
0.4558207555863054 
0.1882041631330765 
0.1882041631330765 
0.1882041631330765 
0.1882041631330765 
0.1882041631330765 
0.1882041631330765 
0.4558207555863054 
0.1882041631330765 
0.1882041631330765 
0.1882041631330765 
0.1882041631330765 
0.1882041631330765 
0.1882041631330765 
0.230370089778956 
0.230370089778956 
0.230370089778956 
0.230370089778956 
0.230370089778956 
0.1882041631330765 
0.1882041631330765 
-0.2913417463196026 
0.1882041631330765 
0.1882041631330765 
0.1882041631330765 
0.1882041631330765 
-1.233561456462798 
3.718811219276844 
0.2909626907258757 
-1.009557874080152 
1.166980208468401 
-1.009557874080152 
-0.6331840457136296 
1.465570022950652 
0.1298218438757048 
3.604031122466519 
-1.506342310318234 
-1.954563277935681 
-1.967077265607161 
-0.3586853193482932 
-0.1644985724933089 
-1.152906057582991 
-0.4603059447632642 
0.291309946047364 
-4.257571006006714 
-1.584575162779002 
1.926614237887688 
0.5357067105945579 
-1.19960393640527 
-0.08881890789023181 
0.3092691667582884 
-0.9004096801076352 
1.760680678493087 
-0.1582657346068352 
-0.1582657346068352 
-0.1582657346068352 
-0.1582657346068352 
-0.1582657346068352 
-0.1582657346068352 
-0.1582657346068352 
-0.1582657346068352 
-0.1582657346068352 
-0.1582657346068352 
-0.1582657346068352 
-0.1582657346068352 
-0.3376731574753091 
-0.9004096801076356 
-0.2698079214432184 
1.201326872818357 
-0.9443221242895841 
0.260398186272439 
-1.366380647615554 
-0.9453393040770948 
0.1733001262202961 
-0.6342525299297463 
-0.7985385133833292 
0.1957447999873449 
-0.9004096801076352 
0.9796340112512538 
-0.5549828159997557 
0.9538429368579191 
-0.6380489733734246 
0.1442331908478838 
2.875068758911092 
-0.5174338403974863 
1.231284924436869 
-0.5932367797075822 
0.8421852167910894 
-0.9708024238637419 
-0.9708024238637419 
0.9090958404931935 
-0.5932367797075822 
-0.5932367797075822 
-0.5932367797075822 
-0.5932367797075822 
-0.4502048400538176 
-0.4502048400538176 
-1.199747434664697 
0.8479371622924922 
0.2077915188900471 
-0.1347615763564731 
3.696817705945139 
0.2416150355551521 
-2.151549945932605 
0.04534732178528486 
-3.279845332339912 
0.6915133225652616 
0.1921592889795248 
-6.14994022594259 
0.5133130410708249 
-0.7103281204073294 
0.4794650233752527 
0.2399511395446253 
-3.316624562713488 
-0.1143383785718195 
-1.444498496299121 
0.9153131252868535 
-0.5174338403974862 
-0.5174338403974862 
0.3677769446663596 
-0.6301057651471421 
0.3677769446663596 
0.3677769446663596 
0.3677769446663596 
-0.04841513645643504 
0.3677769446663596 
0.3677769446663596 
0.3677769446663596 
-0.04841513645643504 
0.3677769446663596 
-1.361134451130013 
-1.502037912819947 
0.4743524784224885 
0.6049936948108582 
-0.7026415586683371 
0.04757759479871632 
1.443221531923287 
0.0558719487249787 
-0.6052275128283954 
-0.9018120585447991 
-0.7733027871646038 
1.671747514540395 
-0.5727025609031538 
-0.5501271207101663 
0.9883257458187104 
-0.4885373678247407 
-0.4885373678247407 
-0.4507810833782873 
-7.146575131929596 
-0.2598605797172283 
-1.633701423603788 
-1.375188492018256 
-0.8940640126847801 
-2.536565249046433 
1.801165181885824 
-0.2364696591983736 
4.251343355011056 
-0.2735389526406055 
-1.467040911894875 
-0.900226066724396 
1.189258546196099 
0.6320762842199372 
0.6320762842199372 
0.4743306456323103 
0.4151427279363389 
0.6320762842199372 
0.6767017027680061 
0.1184902751198891 
-0.07580981746828899 
0.6320762842199372 
0.748879713619561 
0.6320762842199372 
1.011774779250092 
1.01692945769453 
1.01692945769453 
-1.644021937897886 
0.6777784894912879 
0.299937763778318 
0.299937763778318 
0.6988538560270069 
0.6988538560270069 
0.07215305690566354 
-0.2645702646697405 
0.1538505872230409 
0.7708180479238042 
-0.3764389995333798 
-1.931816555688362 
-0.4354189060652455 
0.02677051640421216 
1.615952819480555 
-0.007406001758242686 
-0.2017146972937486 
-0.311286502345737 
-1.149406519746262 
-6.827302433568536 
-1.330410846002909 
-1.330410846002909 
-1.330410846002909 
-1.330410846002909 
-1.330410846002909 
-1.330410846002909 
-1.330410846002909 
-0.3608560513301655 
1.317463652647809 
-0.3803695713387864 
-0.9004096801076352 
-0.6237645165377215 
-0.6237645165377215 
-0.6237645165377215 
1.861136654455274 
1.630895161450309 
0.4898497205122723 
-0.2091938382720696 
0.1291617815279124 
0.4440049389197286 
0.6244161603445781 
-0.6224171819201697 
-0.6224171819201697 
-0.559879980194957 
0.2144870531402016 
0.2163799540505445 
-0.9256475342122648 
-1.647007931124039 
-0.8963635787895592 
-2.696793959385149 
-0.1953391713335745 
-0.6652078667007383 
-0.1953391713335745 
0.3258217129741535 
-0.3367883908571135 
-0.05704643131410343 
-0.2544050534049258 
-0.2544050534049258 
-0.5174338403974862 
0.3094783858198505 
0.3094783858198505 
-0.2627955293392984 
0.7052708999342974 
0.3354188489426106 
-1.420009386547878 
0.7410950013613649 
0.09504997360019377 
0.01827660817178671 
0.1076431921813215 
0.01827660817178671 
0.01827660817178671 
-0.5010877120530624 
-0.3387204376390972 
0.1987571365391344 
-0.5832998802743309 
-1.023713179325936 
-0.6390258666682934 
-0.7860264210841188 
0.7084461351866543 
-0.6922504430931102 
-0.1441842297940665 
0.2971224456500157 
0.2971224456500157 
-1.554068512380364 
0.8445008021259722 
0.8445008021259722 
0.3592209098768336 
0.2599740618490064 
0.2599740618490064 
-0.1464710311173037 
1.395788834076763 
0.02389297356718299 
0.02389297356718299 
0.02389297356718299 
-0.9004096801076351 
-0.6286948302004138 
-4.382904129316441 
1.394913279045438 
0.3312461553962546 
-0.1589098848218866 
0.3824338030926048 
0.5204463082399846 
0.5204463082399846 
0.5204463082399846 
0.3824338030926048 
-0.6299149897052765 
-0.6299149897052765 
-0.6575577197189459 
-0.5268236787576166 
-1.046728178548879 
-0.5174338403974863 
1.618600676811249 
-0.433510288970581 
1.224823448152383 
1.98402777548836 
1.963724728315995 
-0.3154150104345938 
-0.8410540088623804 
1.292533353564284 
0.08037939321892496 
-0.3246163930068807 
-1.221355894621208 
-0.4729271219374073 
-0.5174338403974862 
0.6414544088377787 
-0.5174338403974862 
0.6372534073866156 
1.706495727337217 
0.1055317517194107 
-1.554401501870109 
-0.5169642694903232 
-1.354890074584709 
-0.8468171505311575 
-0.5155411643847178 
2.321193363494555 
-1.119397776841999 
-0.8841722943743511 
1.159673051008342 
-0.2516494588043955 
0.2710403148469495 
-0.1933038801272733 
0.4595776168021836 
-0.9004096801076351 
1.252711604548492 
-0.5621923906626172 
0.1493126767662359 
-1.199747434664697 
0.3523271820875852 
0.7275406043129302 
1.087864403542218 
0.5206049609967802 
0.02356117058781994 
1.31090315374427 
-0.5174338403974862 
-1.755649301037053 
1.458256097254331 
1.139046879036783 
-0.9798885673933884 
0.1993797935548066 
0.1993797935548066 
0.1993797935548066 
0.1993797935548066 
0.1993797935548066 
1.439350441202032 
-1.08218052762432 
0.6915133225652614 
-0.8559967273989989 
-1.999455993211901 
-1.118171476344847 
-0.8895114283933896 
-0.8895114283933896 
-0.8895114283933896 
-0.2139364981876605 
-0.4502048400538177 
-0.4502048400538177 
-0.6736019034800413 
-0.4180344473125953 
0.5785840404314547 
-0.5602815983723815 
2.313024528488435 
0.05771418436327232 
-0.4834690687617625 
-0.2047741184068161 
0.4292510412382489 
0.4292510412382489 
0.4292510412382489 
-0.6993092438042271 
0.1821480618151054 
-0.5333923138657376 
1.0531016447117 
0.1821480618151054 
0.1821480618151054 
0.1821480618151054 
0.1944689783282196 
0.1821480618151054 
0.1821480618151054 
0.1821480618151054 
0.4292510412382489 
0.1821480618151054 
-0.4869280952677961 
0.2795029117223425 
-0.4788150141992095 
-0.9004096801076352 
-7.128745516989765 
-1.385163077184801 
-2.793734105780158 
-0.1210185686898759 
-0.1210185686898759 
2.361779891758598 
0.123451136240786 
-0.314483798636227 
-0.5174338403974863 
-0.9004096801076353 
0.6595189809281667 
1.915076256312422 
1.915076256312422 
-0.774738684482097 
2.014761347373867 
-0.2590110242218308 
-0.2590110242218308 
1.614981184966283 
-0.2590110242218308 
-0.2590110242218308 
-0.2590110242218308 
0.3935901961726088 
-0.2590110242218308 
-0.2590110242218308 
-0.2590110242218308 
-0.9184389025766424 
0.904274856247422 
0.5130704885415298 
1.208331689741304 
1.39518921615197 
0.8319578613747803 
1.208331689741304 
1.208331689741304 
1.208331689741304 
1.208331689741304 
0.6040839895863707 
1.208331689741304 
-0.6901452473454179 
0.3772963560998237 
-0.5687240761717805 
1.246833342264748 
1.578717342809427 
1.246833342264748 
1.246833342264748 
1.246833342264748 
0.5736209690667294 
1.246833342264748 
-0.7289800177193 
1.246833342264748 
0.7174301532962558 
1.556489666174585 
-0.7260882502881959 
-0.7260882502881959 
0.8709535828965974 
-0.4980067763619417 
0.8709535828965974 
0.6349723956243526 
3.18268141731768 
2.350116607195198 
0.5641358365563316 
-0.08715077887522492 
0.8709535828965974 
1.524413241766802 
0.8709535828965974 
-1.200787502831741 
-0.06204577934936906 
1.477113980603609 
-0.4657833950794865 
2.164811903088373 
2.177346545877265 
-0.5421573540382464 
-0.7282822786159227 
0.6383274782905973 
2.781908045584934 
-6.404261147980233 
1.753391952858049 
0.6716631497666059 
1.753391952858049 
1.868652485031709 
1.753391952858049 
-0.2904896670932823 
-0.5174338403974862 
-0.2630157462799553 
-1.199747434664697 
1.398253208150215 
0.9882163323757944 
1.041416751482513 
0.9044510840957566 
1.109670632700874 
-0.5368312789491184 
0.9202747977421733 
-0.5368312789491184 
-1.881834024778286 
-0.5174338403974863 
-0.6970088848208754 
-0.5808543230182489 
0.4069768430803553 
0.1616398102436837 
0.4069768430803553 
0.1616398102436837 
-0.08080894323751039 
0.1616398102436837 
0.4131402413296081 
0.4131402413296081 
-0.5174338403974863 
-0.9022964957650614 
1.289328137954857 
-0.517186736222949 
0.2631803301086079 
-0.203322073450933 
-0.203322073450933 
-0.09490774546406525 
-0.09490774546406525 
1.255328753561237 
-2.18008493698032 
-0.7665202476305978 
-1.481683079230466 
0.3622687966355411 
-0.3803695713387864 
-0.5174338403974862 
-7.058329605057085 
0.9541306107540081 
-0.5415551845746188 
-1.503074081708838 
-0.7830018474383781 
-0.6145177795981117 
-0.00240644651400105 
-1.019659770584929 
-0.4126173383301782 
-1.025619332123635 
0.4582145972119252 
-0.1750023910051306 
-0.1547108754700975 
-0.08041106872266249 
-1.600731266383444 
0.471701372029318 
-0.5174338403974863 
2.114428421731134 
-1.894332875900269 
0.7452510017262336 
1.576188165559459 
-0.1272650887145435 
-0.1272650887145435 
-0.1272650887145435 
-0.1272650887145435 
-0.1272650887145435 
-1.078989430367981 
-0.5174338403974862 
-0.2399033534133917 
-0.2798192091981853 
-0.2399033534133917 
-0.2399033534133917 
-2.468074065431305 
-2.468074065431305 
0.5516934634924849 
0.5516934634924849 
0.5516934634924849 
0.5516934634924849 
-2.1601853666727 
0.5516934634924849 
0.5516934634924849 
-0.2889387054438119 
-0.2843022767374767 
-0.4466023959667209 
1.173930506025188 
-0.37111651954353 
0.4397886181290526 
-0.1611143974025033 
0.5598743297923027 
0.4397886181290526 
0.4397886181290526 
0.4397886181290526 
0.4397886181290526 
-1.234212779262681 
0.8279365847931894 
0.8943675073581209 
-0.2099683590442988 
-0.4070689004714445 
-0.5133703752653278 
-0.2424487534811941 
-0.2424487534811941 
-0.2424487534811941 
-0.2424487534811941 
-0.2424487534811941 
-0.2424487534811941 
-0.2424487534811941 
-0.2424487534811941 
-0.2424487534811941 
-3.560704613456104 
-0.1006200205896546 
-0.1006200205896546 
-0.1006200205896546 
-0.1006200205896546 
2.805409885037582 
0.4495547379659455 
1.501683493377288 
3.039850174538667 
-0.5665696543688645 
0.08239124784721694 
0.08239124784721694 
-0.08175220698187913 
-0.3851470813870268 
1.768991718119404 
1.490074027590381 
-0.3437742495508281 
-0.5507475085215939 
-0.4357918489181091 
0.3661725666961918 
0.06927478380038792 
0.06927478380038792 
0.3661725666961918 
-0.01792679348414127 
-0.01792679348414127 
0.1200857116632292 
-0.01792679348414127 
-0.01792679348414127 
-0.01792679348414127 
-0.01792679348414127 
-0.01792679348414127 
-0.01792679348414127 
0.1200857116632292 
-0.01792679348414127 
-0.01792679348414127 
0.01982949096231212 
-0.01792679348414127 
0.2171107074667173 
3.924751770382121 
1.07154851287298 
-0.2418744869095345 
-0.3798869920569044 
-0.9148880205604505 
2.163962857281979 
-1.451475145362611 
-0.3538547360092181 
-0.9004096801076351 
0.6581210334804162 
-0.1494572753577355 
0.6581210334804162 
0.6581210334804162 
-1.21327537658713 
0.6581210334804162 
0.6581210334804162 
0.6581210334804162 
-0.6162779260207484 
-0.4000695443534039 
-1.558122600136843 
-0.3658448315039667 
-2.211923407693746 
-0.3803695713387863 
-0.03338719341715665 
-0.03338719341715665 
-0.03338719341715665 
-0.5647438175380947 
-0.01125723485013196 
-0.03338719341715665 
-1.189468981653284 
0.1463934496578669 
-1.839645428423238 
0.6267748005212231 
-0.7430862925476066 
-0.8814728749532089 
-0.8814728749532089 
-0.8814728749532089 
0.1656331651673676 
0.1233373361446608 
-0.2766795481363819 
-1.797951183927921 
0.1884099177624552 
-0.7984968594631647 
0.3752674441731423 
0.000662423442299942 
0.1884099177624552 
-1.069914806277556 
-0.9004096801076352 
-6.2022079486438 
-1.557264719315502 
-0.5174338403974863 
-1.443149999241318 
-0.6985165998953248 
-0.5914021281460282 
-0.7294146332933996 
-0.7294146332933996 
0.4556298385806022 
-0.6040817632975762 
-0.9096514905836152 
0.7046190564028645 
-0.6136241180926915 
-0.1269986619060142 
-0.7381069266302314 
-0.09537938247925584 
-0.1269986619060142 
-0.1269986619060142 
0.06033954333687751 
-0.5235628419387978 
-0.2952404589272833 
-0.3592469867739916 
-0.2636211795005251 
-0.540553972889409 
0.8780673364619396 
1.687946004765357 
-0.1362117796465974 
-0.920270848775631 
-0.2139157179354196 
-0.4138064863854815 
0.7744673525558491 
0.4564109558897894 
5.298962538730735 
-0.5850929030875249 
1.648954411012514 
-0.04085059329231799 
-0.5174338403974862 
-1.233677815817117 
-2.020048529319913 
-0.8860088125369208 
-0.1813808964554139 
0.1316396310058485 
0.02304788174264344 
-0.05855129913296587 
-1.206761762486134 
-1.074200686089277 
1.090559585330907 
1.090559585330907 
1.090559585330907 
0.190547553389889 
1.090559585330907 
1.090559585330907 
0.9832710441782533 
-1.49013189599914 
0.368235140139599 
0.1211321607164554 
0.1211321607164554 
1.775630190174817 
-0.9310598189516481 
0.623517969155485 
0.02029151553503283 
0.2673944949581759 
0.02029151553503283 
-0.00408034771166526 
0.02029151553503283 
0.02029151553503283 
0.02029151553503283 
0.02029151553503283 
0.1583040206824047 
0.02029151553503283 
0.1583040206824047 
0.142882954987138 
0.219368999442373 
-0.0277339799807701 
-0.0277339799807701 
0.1755663124926306 
1.098192133113882 
-0.01129121391804393 
-0.06693991553196912 
1.213332445943948 
0.9597847198103634 
-5.610469131623656 
-0.2890801792498681 
-0.2890801792498681 
1.034279791166427 
1.034279791166427 
1.172292296313735 
-0.5174338403974863 
-0.3080725014844908 
-0.0003168113103255935 
0.2467861681128178 
0.4238402919431198 
-0.0003168113103255935 
-0.0003168113103255935 
0.615309675062331 
1.422930098561421 
-0.2724864193890914 
-0.3803695713387865 
-8.317578227360242 
0.439275135663984 
-0.4870159022461651 
-0.8835267903072772 
-0.4870159022461651 
-0.4492596177997115 
-0.4870159022461651 
-0.4870159022461651 
-0.4870159022461651 
-0.4870159022461651 
-0.4870159022461651 
-0.4870159022461651 
-0.4870159022461651 
-0.4870159022461651 
-0.4870159022461651 
-1.152297649536373 
1.064827961706784 
-0.6415211282126901 
-0.3430295901996828 
-0.3430295901996828 
-0.3052733057532291 
-0.3430295901996828 
-0.1632489471246583 
3.011518401063476 
0.5919744059715136 
-0.925781622706915 
-0.6957770030341236 
-0.6146084377195037 
-0.6303162073084985 
0.6326448750413254 
-0.2558132652875076 
1.469502816443684 
0.7298654055246815 
-0.3027141826273955 
-0.4895717090380711 
-0.5174338403974863 
-0.4019611866758713 
-0.4019611866758713 
-0.4019611866758713 
0.7800754941227382 
-1.851190958030381 
-1.851190958030381 
-0.1181810984683231 
-1.7128896120275 
1.419785716395187 
-0.5174338403974863 
-1.578796126484971 
-0.5174338403974862 
-0.4070689004714434 
-0.4844054789227033 
-0.5174338403974863 
0.5717085925534384 
0.5717085925534384 
0.5717085925534384 
0.5717085925534384 
-0.3935919311360461 
-0.7582154302914314 
-0.7582154302914314 
-1.123683787580378 
-0.693541070372958 
-1.123683787580378 
-1.123683787580378 
1.850743925101283 
1.06382608025866 
-0.6613536550556707 
-0.6613536550556707 
0.7928472923798438 
0.7928472923798438 
-0.5135860091000484 
0.5902504427783902 
0.7118416565247239 
-1.446198309690716 
-0.7241114710498073 
2.065032901738437 
2.251890428149111 
2.065032901738437 
2.065032901738437 
2.065032901738437 
-0.1163516986878982 
-0.1163516986878982 
0.1011852288335788 
-0.5174338403974862 
-1.199747434664697 
1.499994530930783 
-0.7214586167580007 
-0.7214586167580007 
0.4309702205609627 
0.4309702205609627 
-0.1753379533591373 
0.4309702205609627 
0.4309702205609627 
0.4309702205609627 
0.4309702205609627 
0.4309702205609627 
0.4309702205609627 
0.4309702205609627 
0.4309702205609627 
0.4309702205609627 
-0.5248265004944227 
-0.5248265004944226 
-0.08718374880490694 
-0.01047427629098334 
-0.5248265004944225 
-0.01047427629098334 
-0.01047427629098334 
-0.01047427629098334 
-0.3999158115548988 
-0.3999158115548988 
-0.3999158115548988 
0.4159731294219377 
-0.1652702143759219 
0.4159731294219377 
0.4159731294219377 
0.6915133225652617 
1.109045747747873 
0.9221882213371981 
0.8454787488232742 
0.9221882213371981 
-0.2376075004019507 
-0.2376075004019507 
-1.087473244271697 
-0.2376075004019507 
-0.2376075004019507 
-0.2376075004019507 
-0.5383993598754109 
-0.2376075004019507 
-0.2376075004019507 
-0.2376075004019507 
-0.2376075004019507 
-0.2376075004019507 
-0.2376075004019507 
-0.2376075004019507 
-0.3206664030408202 
-0.904828432927961 
-0.04052187492534082 
-0.05188869704268317 
0.4049259132002036 
0.0377562844464534 
0.0377562844464534 
-0.4844054789227034 
0.2175369275214771 
0.0377562844464534 
0.0377562844464534 
0.0377562844464534 
0.0377562844464534 
0.2175369275214771 
0.0377562844464534 
0.0377562844464534 
0.0377562844464534 
0.2175369275214771 
0.0377562844464534 
0.4130094894538935 
0.0377562844464534 
-3.409120171481179 
0.0377562844464534 
0.0377562844464534 
0.0377562844464534 
0.0377562844464534 
0.2175369275214771 
0.0377562844464534 
0.2175369275214771 
0.1757687895938221 
0.0377562844464534 
0.0377562844464534 
0.0377562844464534 
3.854814712491587 
0.0377562844464534 
0.0377562844464534 
0.0377562844464534 
0.0377562844464534 
0.0377562844464534 
0.0377562844464534 
-0.03895318806747018 
0.0377562844464534 
0.0377562844464534 
0.0377562844464534 
0.0377562844464534 
0.0377562844464534 
0.0377562844464534 
-0.06949721648968482 
0.0377562844464534 
-0.3682844769824645 
0.3934187098715964 
0.0377562844464534 
0.0377562844464534 
-0.6479857018948343 
-1.004699247703142 
-0.2988460157351946 
-0.7015508491743013 
0.4644149951925056 
0.4644149951925056 
0.4644149951925056 
0.4644149951925056 
0.2173120157693631 
0.9980836017145152 
1.937691541827048 
0.7837191830334708 
-0.5174338403974863 
0.5919587391044844 
-0.7789886484538042 
0.6282131074403223 
0.1223861792679415 
-0.04724560530618709 
-0.01562632587942872 
-0.01562632587942872 
-0.04724560530618709 
-1.004774675328753 
-0.01125187032569674 
-0.01125187032569674 
0.0863904853276475 
-0.5174338403974863 
1.113278169681876 
-0.5514530568128995 
0.4408191980434143 
0.6276770622610625 
-0.1692705855205521 
0.4408191980434143 
0.4408191980434143 
0.4408191980434143 
-0.4986823807870269 
3.0861853757455 
-0.3713477108738683 
-0.3713477108738683 
-0.3713477108738683 
-0.3713477108738683 
-0.3713477108738683 
-0.5174338403974862 
-0.4223145089505737 
0.8870900916843361 
0.7002325652736514 
0.7002325652736514 
0.8870900916843361 
0.8870900916843361 
-1.003357797296781 
-0.5560327422324529 
-0.5560327422324529 
-0.7985720046941379 
-4.940322058933409 
-0.08006207150300924 
-0.01550905704860851 
-0.01550905704860851 
-0.06845951955523244 
-0.01550905704860851 
-0.01550905704860851 
-0.08006207150300924 
-0.01550905704860851 
-0.01550905704860851 
-0.01550905704860851 
-0.01550905704860851 
-0.01550905704860851 
-0.01550905704860851 
-1.590715750735366 
-1.590715750735366 
-1.590715750735366 
-1.590715750735366 
-1.590715750735366 
2.424484173030964 
-1.590715750735366 
-0.3687341128714525 
0.4032873291752274 
-0.3998669582153142 
0.4032873291752274 
0.4032873291752274 
1.194009670617943 
1.562140242094062 
-1.199747434664697 
-1.135084085496013 
0.7616688966571411 
0.7616688966571411 
0.7616688966571411 
-0.5174338403974862 
1.67001710178717 
2.45218886793169 
0.6022746848305834 
0.6022746848305834 
0.6022746848305834 
-0.5174338403974863 
1.353742473807643 
1.353742473807643 
0.1491153302536903 
0.3554649807904841 
-0.2673182569033812 
-0.4502048400538176 
-0.4502048400538176 
1.613553131189805 
-0.540553972889409 
-0.8774594865030782 
-1.396478705799156 
-1.396478705799156 
-0.350782857318085 
-1.492887234777924 
-0.2344652515997036 
-0.5586860878553349 
-0.2344652515997036 
-0.09645274645233022 
-0.2344652515997036 
-0.2344652515997036 
-0.5174338403974861 
0.7297371859485251 
-0.3206664030408203 
-0.9528183071218419 
-0.911873505306283 
1.736431605640029 
2.070663143465429 
0.6915133225652619 
-0.08291311603049258 
-0.5384354022942616 
-0.2770890462426016 
-0.4502048400538176 
-0.4502048400538176 
-1.037744808540419 
-0.5174338403974863 
1.156942491806267 
1.156942491806267 
1.156942491806267 
-0.4834833859215798 
-0.2343038117149331 
0.9056877066261941 
-0.3675630893395571 
-0.3675630893395571 
0.5273056734815528 
-0.5584598301973903 
-0.2381220046727657 
-0.3803695713387866 
-0.5174338403974862 
-0.04234435785736589 
0.4184957194846403 
1.170306729785781 
0.4679639363218758 
0.1298573545512823 
-0.9004096801076353 
0.03840229352477592 
-0.7884485016601432 
-0.517186736222949 
-4.052133744123085 
1.661470149448582 
1.444536593164985 
0.636193669716745 
2.915290531502684 
-0.1036769449248335 
-1.049265939189862 
-0.6196567516858782 
-0.6196567516858782 
-0.6196567516858782 
-0.6196567516858782 
-0.6196567516858782 
-0.540553972889409 
-0.5174338403974863 
0.1743228836217767 
0.1672460002861295 
-0.0125346427888942 
-0.0125346427888942 
-0.1021438425528574 
-0.1128941904293928 
-0.1128941904293928 
-0.5174338403974861 
0.6915133225652619 
-0.5174338403974862 
-0.3763738283665216 
-0.3763738283665216 
-0.3763738283665216 
-0.3763738283665216 
-0.3763738283665216 
-0.3763738283665216 
-0.3763738283665216 
-0.1895163019558477 
-0.5459748122263158 
-0.3763738283665216 
-0.3763738283665216 
-0.3763738283665216 
-0.3763738283665216 
-0.3763738283665216 
2.20140407037226 
-0.01313853742303638 
0.6471774302980218 
0.6012009232300644 
0.6012009232300644 
0.6012009232300644 
0.6012009232300644 
-4.326889664276308 
0.4178258952522978 
0.64575163100595 
0.64575163100595 
0.64575163100595 
1.298172002559142 
-0.6978959315641584 
0.5093679020903086 
0.5093679020903086 
0.5093679020903086 
-0.5174338403974862 
-0.1697491559912016 
-0.0313589786299427 
-0.7339520675536965 
-0.3680325778815278 
-0.1149556596034847 
-0.1149556596034847 
-0.1149556596034847 
-0.1149556596034847 
-0.1149556596034847 
-0.1149556596034847 
-0.1149556596034847 
-0.1149556596034847 
-0.1149556596034847 
-0.1149556596034847 
-0.1149556596034847 
0.02305684554389478 
-0.1149556596034847 
-0.1149556596034847 
-0.1149556596034847 
0.1321473198196581 
0.1321473198196581 
-0.1149556596034847 
-0.1149556596034847 
-0.9366094217038474 
-0.1149556596034847 
-0.1149556596034847 
-0.1149556596034847 
0.1321473198196581 
0.06209846422681818 
0.1321473198196581 
0.1321473198196581 
-0.1149556596034847 
-0.1149556596034847 
0.317793148222396 
0.1797806430750237 
0.1797806430750237 
0.1797806430750237 
0.1797806430750237 
0.1797806430750237 
0.1797806430750237 
0.1797806430750237 
0.1797806430750237 
0.2907641594282547 
-0.3705100804054676 
0.1797806430750237 
0.1797806430750237 
0.1797806430750237 
0.1797806430750237 
0.1797806430750237 
0.1797806430750237 
0.1797806430750237 
0.1797806430750237 
0.1797806430750237 
0.1797806430750237 
0.1797806430750237 
0.1797806430750237 
0.1797806430750237 
0.1797806430750237 
0.1797806430750237 
0.1797806430750237 
0.1797806430750237 
0.1797806430750237 
0.1797806430750237 
0.1797806430750237 
-0.1653079888998525 
0.1797806430750237 
0.1797806430750237 
0.1797806430750237 
-0.7592043273359764 
2.104938060289176 
-0.5174338403974862 
0.5293006876550799 
0.4335650956662356 
-0.5174338403974862 
-0.5174338403974863 
0.6915133225652617 
-0.5174338403974862 
-0.4507974393366938 
0.157541842889765 
0.157541842889765 
-0.5174338403974863 
-0.08306518642352052 
1.211503736152614 
2.626456110951753 
1.367202284140443 
-0.230004619672791 
-1.065449935637161 
-1.097069215063919 
0.5473783564759537 
0.5473783564759537 
0.5473783564759537 
0.5473783564759537 
0.5473783564759537 
0.5473783564759537 
0.5473783564759537 
0.5473783564759537 
0.5473783564759537 
-0.08291311603049247 
0.5473783564759537 
0.5473783564759537 
2.179819256491606 
0.5473783564759537 
0.5473783564759537 
0.5473783564759537 
0.5473783564759537 
0.5473783564759537 
0.5473783564759537 
0.5473783564759537 
0.5473783564759537 
-0.7396374109190008 
0.8320928157202182 
0.8320928157202182 
-0.3803695713387865 
-0.5174338403974863 
2.214542607795296 
2.461645587218439 
0.3092691667582879 
-0.8327939139272764 
-0.3580183821756042 
-0.03012646992297502 
-0.2574047081985367 
-0.5174338403974863 
-0.5112552727884475 
-0.5112552727884475 
-0.05464259065219179 
-0.5174338403974863 
-0.2643644373134995 
-7.121763943868941 
-1.347309584487376 
3.867792475106716 
1.39248253954813 
-0.8339894030183764 
-0.8339894030183764 
-0.8339894030183764 
0.1380125051473692 
0.1380125051473692 
0.1380125051473692 
0.1380125051473692 
0.1380125051473692 
0.1380125051473692 
0.1380125051473692 
0.1380125051473692 
0.110983516353227 
0.1380125051473692 
0.1380125051473692 
0.1380125051473692 
0.1380125051473692 
0.110983516353227 
0.1380125051473692 
0.1380125051473692 
0.1380125051473692 
0.1380125051473692 
0.1380125051473692 
0.1380125051473692 
0.1380125051473692 
0.1380125051473692 
0.1380125051473692 
0.1380125051473692 
0.1380125051473692 
0.1380125051473692 
0.1380125051473692 
0.1380125051473692 
0.1380125051473692 
0.1380125051473692 
0.1380125051473692 
0.1380125051473692 
0.1380125051473692 
0.1380125051473692 
0.1380125051473692 
0.1380125051473692 
0.1380125051473692 
0.1380125051473692 
0.1380125051473692 
0.1380125051473692 
0.1380125051473692 
0.1380125051473692 
0.1380125051473692 
0.1380125051473692 
0.1380125051473692 
0.1380125051473692 
0.1380125051473692 
0.1380125051473692 
0.1380125051473692 
0.1380125051473692 
0.1380125051473692 
0.1380125051473692 
0.1380125051473692 
0.1380125051473692 
0.1380125051473692 
0.1380125051473692 
0.1380125051473692 
0.1380125051473692 
0.1380125051473692 
0.1380125051473692 
0.1380125051473692 
0.1380125051473692 
0.1380125051473692 
0.3150666289776741 
0.1380125051473692 
0.1380125051473692 
0.1380125051473692 
-0.2876421358277146 
0.7923222491776207 
-1.097398963699841 
-5.425833646239583 
-0.5174338403974861 
-1.343019968197087 
-1.343019968197087 
-1.343019968197087 
-0.6101929249576579 
-0.1147327120507387 
-0.8541672419460736 
-0.8541672419460736 
-0.08110667616554128 
0.7388597467955493 
1.345633077070514 
-0.2797419595430097 
-0.2797419595430097 
-0.2797419595430097 
-0.2797419595430097 
-0.2797419595430097 
-0.2797419595430097 
-0.2797419595430097 
-0.2797419595430097 
-0.2797419595430097 
-0.320955197776773 
-0.5174338403974863 
-1.814105944006071 
-1.814105944006071 
-0.5390281094852792 
0.698843440003136 
0.698843440003136 
0.698843440003136 
-0.03161927942675835 
-0.03161927942675835 
-0.03161927942675835 
-0.03161927942675835 
-0.03161927942675835 
-0.03161927942675835 
-0.03161927942675835 
-0.03161927942675835 
-0.03161927942675835 
-0.03161927942675835 
-0.03161927942675835 
0.4960935920823964 
-0.5174338403974863 
-0.02867257756157915 
-0.2297701072790488 
-0.2297701072790488 
-0.2297701072790488 
-0.115021781507954 
0.6260377679581322 
0.6260377679581322 
0.6260377679581322 
1.26296108234982 
1.26296108234982 
-0.5174338403974862 
0.8199664229610905 
-0.3130171347537029 
-0.3130171347537029 
-0.3130171347537029 
-0.3130171347537029 
-0.3130171347537029 
-0.5174338403974861 
-0.2463692409635699 
0.04442462003948716 
-0.1424329063711993 
-0.3803695713387865 
0.1770541238303025 
0.1770541238303025 
0.1770541238303025 
0.4241571032534458 
-0.7141740079786291 
-2.003965764166537 
0.7023427934639051 
0.7023427934639051 
0.7023427934639051 
0.7023427934639051 
0.7023427934639051 
-0.7040157392670121 
0.7436002359798418 
0.7436002359798418 
0.247102979423143 
0.247102979423143 
0.247102979423143 
0.247102979423143 
0.247102979423143 
0.247102979423143 
0.247102979423143 
0.247102979423143 
0.247102979423143 
-0.5174338403974862 
0.3635259786099629 
0.3635259786099629 
1.026696617585597 
-0.5174338403974863 
0.1868575264106734 
0.1868575264106734 
0.1868575264106734 
0.1868575264106734 
0.1868575264106734 
0.1868575264106734 
0.1868575264106734 
0.1868575264106734 
0.1868575264106734 
0.1868575264106734 
0.1868575264106734 
0.1868575264106734 
0.1868575264106734 
0.1868575264106734 
0.1868575264106734 
0.1868575264106734 
0.1868575264106734 
0.1868575264106734 
0.1868575264106734 
0.1868575264106734 
0.1868575264106734 
0.1868575264106734 
0.1868575264106734 
0.1868575264106734 
0.1868575264106734 
0.1868575264106734 
0.1868575264106734 
0.1868575264106734 
0.1868575264106734 
0.1868575264106734 
0.1868575264106734 
0.1868575264106734 
0.1868575264106734 
0.1868575264106734 
0.1868575264106734 
0.1868575264106734 
0.1868575264106734 
0.1868575264106734 
0.1868575264106734 
0.1868575264106734 
0.1868575264106734 
0.1868575264106734 
0.1868575264106734 
0.1868575264106734 
-0.3803695713387864 
0.1868575264106734 
0.1868575264106734 
0.1868575264106734 
0.1868575264106734 
0.1868575264106734 
0.1868575264106734 
0.1868575264106734 
0.1868575264106734 
0.1868575264106734 
0.1868575264106734 
0.1868575264106734 
0.1868575264106734 
0.1868575264106734 
0.1868575264106734 
0.1868575264106734 
0.1868575264106734 
0.1868575264106734 
0.1868575264106734 
0.1868575264106734 
0.1868575264106734 
0.1868575264106734 
0.1868575264106734 
0.1868575264106734 
0.1868575264106734 
0.1868575264106734 
0.1868575264106734 
0.1868575264106734 
0.1868575264106734 
0.1868575264106734 
0.1868575264106734 
0.1868575264106734 
0.1868575264106734 
0.1868575264106734 
0.1868575264106734 
0.1868575264106734 
0.1868575264106734 
0.1868575264106734 
0.1868575264106734 
0.1868575264106734 
0.1868575264106734 
0.1868575264106734 
0.1868575264106734 
0.1868575264106734 
0.1868575264106734 
0.1868575264106734 
0.1868575264106734 
0.1868575264106734 
0.1868575264106734 
0.1868575264106734 
0.1868575264106734 
0.1868575264106734 
0.1868575264106734 
0.1868575264106734 
0.1868575264106734 
0.1868575264106734 
0.1868575264106734 
0.1868575264106734 
0.1868575264106734 
0.1868575264106734 
-0.3027141826273955 
0.1868575264106734 
0.1868575264106734 
0.1868575264106734 
0.1868575264106734 
0.1868575264106734 
0.1868575264106734 
0.1868575264106734 
0.1868575264106734 
0.1868575264106734 
0.1868575264106734 
0.1868575264106734 
0.1868575264106734 
0.1868575264106734 
0.1868575264106734 
0.1868575264106734 
0.1868575264106734 
0.1868575264106734 
0.1868575264106734 
0.1868575264106734 
0.1868575264106734 
0.1868575264106734 
0.1868575264106734 
0.1868575264106734 
0.1868575264106734 
0.1868575264106734 
0.1868575264106734 
0.1868575264106734 
0.1868575264106734 
0.1868575264106734 
0.1868575264106734 
0.1868575264106734 
0.1868575264106734 
0.1868575264106734 
0.1868575264106734 
0.1868575264106734 
0.1868575264106734 
0.1868575264106734 
0.1868575264106734 
0.1868575264106734 
0.1868575264106734 
0.1868575264106734 
0.1868575264106734 
0.1868575264106734 
0.1868575264106734 
0.1868575264106734 
0.1868575264106734 
0.1868575264106734 
0.1868575264106734 
0.1868575264106734 
0.1868575264106734 
0.1868575264106734 
0.1868575264106734 
0.1868575264106734 
0.1868575264106734 
0.1868575264106734 
0.1868575264106734 
-1.12281272494355 
0.6572873403644158 
0.6572873403644158 
-0.6531202305169004 
0.8070307626913821 
0.6916590022122318 
0.6915133225652617 
0.916448611686465 
-0.7073014630215528 
0.7505952602869046 
0.7505952602869046 
-7.146575131929597 
-0.241038167107728 
-0.241038167107728 
0.1493990172151412 
0.1493990172151412 
0.1493990172151412 
-0.02702898879414016 
-0.3450886319748764 
-0.3450886319748764 
-0.2575587172276715 
-0.5174338403974862 
0.4348160935667619 
-0.658747814673833 
1.506602972630384 
-0.5174338403974862 
1.43013315614187 
-0.1137281921227892 
0.1412052492822352 
-3.38182096034559 
-0.333551487061187 
-0.333551487061187 
-0.05492455024943862 
0.0025727734733893 
0.0025727734733893 
-0.3460486074515214 
0.7263690779712152 
0.7263690779712152 
0.7263690779712152 
0.7263690779712152 
0.7263690779712152 
0.7263690779712152 
-0.5174338403974861 
-1.195571607353554 
0.8877917439474247 
0.7879855347715032 
-0.5174338403974862 
-0.4895717090380711 
